<?xml version="1.0"?>
<opencv_storage>
<cascade>
  <stageType>BOOST</stageType>
  <featureType>HAAR</featureType>
  <height>24</height>
  <width>48</width>
  <stageParams>
    <boostType>GAB</boostType>
    <minHitRate>9.9500000476837158e-01</minHitRate>
    <maxFalseAlarm>5.0000000000000000e-01</maxFalseAlarm>
    <weightTrimRate>9.4999999999999996e-01</weightTrimRate>
    <maxDepth>1</maxDepth>
    <maxWeakCount>100</maxWeakCount></stageParams>
  <featureParams>
    <maxCatCount>0</maxCatCount>
    <featSize>1</featSize>
    <mode>BASIC</mode></featureParams>
  <stageNum>14</stageNum>
  <stages>
    <!-- stage 0 -->
    <_>
      <maxWeakCount>1</maxWeakCount>
      <stageThreshold>9.5775371789932251e-01</stageThreshold>
      <weakClassifiers>
        <_>
          <internalNodes>
            0 -1 29 5.9405941283330321e-04</internalNodes>
          <leafValues>
            -1. 9.5775371789932251e-01</leafValues></_></weakClassifiers></_>
    <!-- stage 1 -->
    <_>
      <maxWeakCount>1</maxWeakCount>
      <stageThreshold>9.5071870088577271e-01</stageThreshold>
      <weakClassifiers>
        <_>
          <internalNodes>
            0 -1 15 -7.0959780714474618e-05</internalNodes>
          <leafValues>
            -1. 9.5071870088577271e-01</leafValues></_></weakClassifiers></_>
    <!-- stage 2 -->
    <_>
      <maxWeakCount>1</maxWeakCount>
      <stageThreshold>9.5172059535980225e-01</stageThreshold>
      <weakClassifiers>
        <_>
          <internalNodes>
            0 -1 5 -1.4410231262445450e-02</internalNodes>
          <leafValues>
            9.5172059535980225e-01 -1.</leafValues></_></weakClassifiers></_>
    <!-- stage 3 -->
    <_>
      <maxWeakCount>2</maxWeakCount>
      <stageThreshold>1.7986006736755371e+00</stageThreshold>
      <weakClassifiers>
        <_>
          <internalNodes>
            0 -1 20 1.2974790297448635e-04</internalNodes>
          <leafValues>
            9.4771909713745117e-01 -1.</leafValues></_>
        <_>
          <internalNodes>
            0 -1 22 2.5806974736042321e-04</internalNodes>
          <leafValues>
            8.5088157653808594e-01 -1.</leafValues></_></weakClassifiers></_>
    <!-- stage 4 -->
    <_>
      <maxWeakCount>3</maxWeakCount>
      <stageThreshold>1.0706282854080200e+00</stageThreshold>
      <weakClassifiers>
        <_>
          <internalNodes>
            0 -1 7 -7.6229684054851532e-03</internalNodes>
          <leafValues>
            -1. 9.4274026155471802e-01</leafValues></_>
        <_>
          <internalNodes>
            0 -1 21 7.3719313368201256e-03</internalNodes>
          <leafValues>
            -4.0359041094779968e-01 9.2148894071578979e-01</leafValues></_>
        <_>
          <internalNodes>
            0 -1 25 8.5462153947446495e-05</internalNodes>
          <leafValues>
            -7.9360097646713257e-01 7.5826448202133179e-01</leafValues></_></weakClassifiers></_>
    <!-- stage 5 -->
    <_>
      <maxWeakCount>3</maxWeakCount>
      <stageThreshold>1.2333673238754272e+00</stageThreshold>
      <weakClassifiers>
        <_>
          <internalNodes>
            0 -1 16 4.9690577725414187e-05</internalNodes>
          <leafValues>
            9.3581253290176392e-01 -1.</leafValues></_>
        <_>
          <internalNodes>
            0 -1 8 -5.0046861171722412e-02</internalNodes>
          <leafValues>
            9.4047957658767700e-01 -2.7102905511856079e-01</leafValues></_>
        <_>
          <internalNodes>
            0 -1 19 8.8780092482920736e-05</internalNodes>
          <leafValues>
            -6.4292484521865845e-01 7.8587776422500610e-01</leafValues></_></weakClassifiers></_>
    <!-- stage 6 -->
    <_>
      <maxWeakCount>2</maxWeakCount>
      <stageThreshold>1.7123196125030518e+00</stageThreshold>
      <weakClassifiers>
        <_>
          <internalNodes>
            0 -1 23 4.9728568410500884e-04</internalNodes>
          <leafValues>
            9.3778681755065918e-01 -1.</leafValues></_>
        <_>
          <internalNodes>
            0 -1 30 -1.0136296041309834e-03</internalNodes>
          <leafValues>
            -1. 7.7453273534774780e-01</leafValues></_></weakClassifiers></_>
    <!-- stage 7 -->
    <_>
      <maxWeakCount>3</maxWeakCount>
      <stageThreshold>1.2400342226028442e+00</stageThreshold>
      <weakClassifiers>
        <_>
          <internalNodes>
            0 -1 24 1.3883486099075526e-04</internalNodes>
          <leafValues>
            9.3877553939819336e-01 -1.</leafValues></_>
        <_>
          <internalNodes>
            0 -1 6 3.2978549133986235e-03</internalNodes>
          <leafValues>
            -3.9599457383155823e-01 8.3360433578491211e-01</leafValues></_>
        <_>
          <internalNodes>
            0 -1 1 3.5493257455527782e-03</internalNodes>
          <leafValues>
            -5.3234559297561646e-01 7.2487115859985352e-01</leafValues></_></weakClassifiers></_>
    <!-- stage 8 -->
    <_>
      <maxWeakCount>4</maxWeakCount>
      <stageThreshold>8.4669715166091919e-01</stageThreshold>
      <weakClassifiers>
        <_>
          <internalNodes>
            0 -1 12 6.4593259594403207e-05</internalNodes>
          <leafValues>
            9.3778681755065918e-01 -1.</leafValues></_>
        <_>
          <internalNodes>
            0 -1 0 -5.9634678065776825e-02</internalNodes>
          <leafValues>
            8.3828324079513550e-01 -3.3593198657035828e-01</leafValues></_>
        <_>
          <internalNodes>
            0 -1 17 1.7804501112550497e-03</internalNodes>
          <leafValues>
            -3.8184317946434021e-01 8.2611441612243652e-01</leafValues></_>
        <_>
          <internalNodes>
            0 -1 2 -2.0296140573918819e-03</internalNodes>
          <leafValues>
            7.7009147405624390e-01 -5.8127212524414063e-01</leafValues></_></weakClassifiers></_>
    <!-- stage 9 -->
    <_>
      <maxWeakCount>3</maxWeakCount>
      <stageThreshold>7.6744610071182251e-01</stageThreshold>
      <weakClassifiers>
        <_>
          <internalNodes>
            0 -1 18 2.6498266379348934e-04</internalNodes>
          <leafValues>
            9.3877553939819336e-01 -1.</leafValues></_>
        <_>
          <internalNodes>
            0 -1 4 2.9122933745384216e-02</internalNodes>
          <leafValues>
            7.8954041004180908e-01 -8.8887304067611694e-01</leafValues></_>
        <_>
          <internalNodes>
            0 -1 13 -3.5544667392969131e-02</internalNodes>
          <leafValues>
            7.1754366159439087e-01 -5.4886490106582642e-01</leafValues></_></weakClassifiers></_>
    <!-- stage 10 -->
    <_>
      <maxWeakCount>3</maxWeakCount>
      <stageThreshold>1.1818146705627441e+00</stageThreshold>
      <weakClassifiers>
        <_>
          <internalNodes>
            0 -1 32 -1.1649083171505481e-04</internalNodes>
          <leafValues>
            -1. 9.3778681755065918e-01</leafValues></_>
        <_>
          <internalNodes>
            0 -1 26 5.6287040933966637e-05</internalNodes>
          <leafValues>
            -4.0031892061233521e-01 8.2216191291809082e-01</leafValues></_>
        <_>
          <internalNodes>
            0 -1 28 9.3478069175034761e-05</internalNodes>
          <leafValues>
            -5.7813405990600586e-01 7.0776045322418213e-01</leafValues></_></weakClassifiers></_>
    <!-- stage 11 -->
    <_>
      <maxWeakCount>2</maxWeakCount>
      <stageThreshold>1.6946626901626587e+00</stageThreshold>
      <weakClassifiers>
        <_>
          <internalNodes>
            0 -1 31 2.7145136846229434e-04</internalNodes>
          <leafValues>
            9.3581253290176392e-01 -1.</leafValues></_>
        <_>
          <internalNodes>
            0 -1 10 3.4600812941789627e-03</internalNodes>
          <leafValues>
            7.5885015726089478e-01 -9.4787377119064331e-01</leafValues></_></weakClassifiers></_>
    <!-- stage 12 -->
    <_>
      <maxWeakCount>3</maxWeakCount>
      <stageThreshold>1.1194627285003662e+00</stageThreshold>
      <weakClassifiers>
        <_>
          <internalNodes>
            0 -1 14 8.0228567123413086e-02</internalNodes>
          <leafValues>
            9.3571430444717407e-01 -8.5000002384185791e-01</leafValues></_>
        <_>
          <internalNodes>
            0 -1 9 1.7026702407747507e-03</internalNodes>
          <leafValues>
            -4.2581778764724731e-01 8.2845294475555420e-01</leafValues></_>
        <_>
          <internalNodes>
            0 -1 27 -7.7438317021005787e-06</internalNodes>
          <leafValues>
            6.5258431434631348e-01 -6.4470446109771729e-01</leafValues></_></weakClassifiers></_>
    <!-- stage 13 -->
    <_>
      <maxWeakCount>2</maxWeakCount>
      <stageThreshold>1.6765272617340088e+00</stageThreshold>
      <weakClassifiers>
        <_>
          <internalNodes>
            0 -1 11 -1.1297268792986870e-03</internalNodes>
          <leafValues>
            -1. 9.3089431524276733e-01</leafValues></_>
        <_>
          <internalNodes>
            0 -1 3 1.0059412568807602e-02</internalNodes>
          <leafValues>
            7.4563288688659668e-01 -9.8764526844024658e-01</leafValues></_></weakClassifiers></_></stages>
  <features>
    <_>
      <rects>
        <_>
          3 1 36 22 -1.</_>
        <_>
          3 12 36 11 2.</_></rects>
      <tilted>0</tilted></_>
    <_>
      <rects>
        <_>
          3 16 18 3 -1.</_>
        <_>
          12 16 9 3 2.</_></rects>
      <tilted>0</tilted></_>
    <_>
      <rects>
        <_>
          6 10 15 3 -1.</_>
        <_>
          6 11 15 1 3.</_></rects>
      <tilted>0</tilted></_>
    <_>
      <rects>
        <_>
          7 12 39 1 -1.</_>
        <_>
          20 12 13 1 3.</_></rects>
      <tilted>0</tilted></_>
    <_>
      <rects>
        <_>
          8 1 18 20 -1.</_>
        <_>
          8 11 18 10 2.</_></rects>
      <tilted>0</tilted></_>
    <_>
      <rects>
        <_>
          8 8 33 12 -1.</_>
        <_>
          8 14 33 6 2.</_></rects>
      <tilted>0</tilted></_>
    <_>
      <rects>
        <_>
          10 5 32 10 -1.</_>
        <_>
          10 10 32 5 2.</_></rects>
      <tilted>0</tilted></_>
    <_>
      <rects>
        <_>
          10 7 5 8 -1.</_>
        <_>
          10 11 5 4 2.</_></rects>
      <tilted>0</tilted></_>
    <_>
      <rects>
        <_>
          11 1 31 12 -1.</_>
        <_>
          11 5 31 4 3.</_></rects>
      <tilted>0</tilted></_>
    <_>
      <rects>
        <_>
          11 11 35 3 -1.</_>
        <_>
          11 12 35 1 3.</_></rects>
      <tilted>0</tilted></_>
    <_>
      <rects>
        <_>
          13 2 1 18 -1.</_>
        <_>
          13 11 1 9 2.</_></rects>
      <tilted>0</tilted></_>
    <_>
      <rects>
        <_>
          14 4 14 2 -1.</_>
        <_>
          14 4 7 1 2.</_>
        <_>
          21 5 7 1 2.</_></rects>
      <tilted>0</tilted></_>
    <_>
      <rects>
        <_>
          14 9 2 1 -1.</_>
        <_>
          15 9 1 1 2.</_></rects>
      <tilted>0</tilted></_>
    <_>
      <rects>
        <_>
          16 3 28 9 -1.</_>
        <_>
          16 6 28 3 3.</_></rects>
      <tilted>0</tilted></_>
    <_>
      <rects>
        <_>
          16 9 22 9 -1.</_>
        <_>
          16 12 22 3 3.</_></rects>
      <tilted>0</tilted></_>
    <_>
      <rects>
        <_>
          16 10 4 6 -1.</_>
        <_>
          18 10 2 6 2.</_></rects>
      <tilted>0</tilted></_>
    <_>
      <rects>
        <_>
          16 13 1 2 -1.</_>
        <_>
          16 14 1 1 2.</_></rects>
      <tilted>0</tilted></_>
    <_>
      <rects>
        <_>
          17 14 7 3 -1.</_>
        <_>
          17 15 7 1 3.</_></rects>
      <tilted>0</tilted></_>
    <_>
      <rects>
        <_>
          20 15 6 1 -1.</_>
        <_>
          22 15 2 1 3.</_></rects>
      <tilted>0</tilted></_>
    <_>
      <rects>
        <_>
          25 4 2 12 -1.</_>
        <_>
          25 4 1 6 2.</_>
        <_>
          26 10 1 6 2.</_></rects>
      <tilted>0</tilted></_>
    <_>
      <rects>
        <_>
          26 3 7 2 -1.</_>
        <_>
          26 4 7 1 2.</_></rects>
      <tilted>0</tilted></_>
    <_>
      <rects>
        <_>
          26 6 4 15 -1.</_>
        <_>
          26 11 4 5 3.</_></rects>
      <tilted>0</tilted></_>
    <_>
      <rects>
        <_>
          26 12 6 1 -1.</_>
        <_>
          28 12 2 1 3.</_></rects>
      <tilted>0</tilted></_>
    <_>
      <rects>
        <_>
          28 13 3 5 -1.</_>
        <_>
          29 13 1 5 3.</_></rects>
      <tilted>0</tilted></_>
    <_>
      <rects>
        <_>
          29 14 3 2 -1.</_>
        <_>
          30 14 1 2 3.</_></rects>
      <tilted>0</tilted></_>
    <_>
      <rects>
        <_>
          29 14 8 3 -1.</_>
        <_>
          29 15 8 1 3.</_></rects>
      <tilted>0</tilted></_>
    <_>
      <rects>
        <_>
          30 14 8 3 -1.</_>
        <_>
          30 15 8 1 3.</_></rects>
      <tilted>0</tilted></_>
    <_>
      <rects>
        <_>
          31 4 3 2 -1.</_>
        <_>
          32 4 1 2 3.</_></rects>
      <tilted>0</tilted></_>
    <_>
      <rects>
        <_>
          33 5 3 6 -1.</_>
        <_>
          34 5 1 6 3.</_></rects>
      <tilted>0</tilted></_>
    <_>
      <rects>
        <_>
          35 6 2 12 -1.</_>
        <_>
          35 10 2 4 3.</_></rects>
      <tilted>0</tilted></_>
    <_>
      <rects>
        <_>
          35 12 10 4 -1.</_>
        <_>
          35 12 5 2 2.</_>
        <_>
          40 14 5 2 2.</_></rects>
      <tilted>0</tilted></_>
    <_>
      <rects>
        <_>
          35 13 8 1 -1.</_>
        <_>
          39 13 4 1 2.</_></rects>
      <tilted>0</tilted></_>
    <_>
      <rects>
        <_>
          38 12 2 1 -1.</_>
        <_>
          39 12 1 1 2.</_></rects>
      <tilted>0</tilted></_></features></cascade>
</opencv_storage>
